{"tinybrain":1,"topology":[6,8,2],"activations":["tanh","tanh"],"weights":[[0.278241839855,-0.130344602806,-0.909240328665,0.060095034102,0.397212858776,0.47718056565,0.257969230068,-0.023639333911,0.905712778636,-0.338462455821,0.078795043323,0.248133894265,0.44919286922,-0.996401127426,0.277091627045,-0.564259792661,0.698602095106,0.587102023692,0.040040121898,-0.310211873292,-0.748945454019,-0.684006121794,0.119979998991,-0.212607917941,0.728880047672,-0.231218829393,0.835886369383,-0.929063517567,0.068732047579,0.356191428078,0.141211184832,-0.557454174178,-0.597360476291,-0.228385754502,-0.4148882608,0.518828264214,0.359141852408,0.136357598536,0.117638925611,0.864912612301,0.196708371489,0.07257459791,0.718000081423,0.286481929611,0.360090304799,-0.080897027199,-1.037272018584,-0.883847795373],[1.139659124492,0.594005624947,-0.250364239537,-0.738375805569,-0.527132864821,0.769482211102,-0.235552164184,-0.887101868115,0.388618010743,-0.597671086713,0.577536325332,-0.552908329085,1.06773801952,0.896666740578,0.431008310724,0.085447638242]],"biases":[[0.368587229107,0.316863568182,0.053245899758,-0.759884803817,0.144221436206,-0.889283424192,-0.600169161148,-0.310864127851],[-0.362417440378,0.682424579599]],"meta":{"trained_by":"evolve","seed":42,"loss":-27.0482,"epochs":7}}